W1
1.536006065843046084e+07 1.536365500765014067e+07 -1.536556469694314897e+07 1.536728629980362393e+07 1.535575879607140832e+07 -1.536458578230385482e+07 -1.535688068762882613e+07 1.536676634591595083e+07 1.532483569043278694e+07 1.535996506869291142e+07 -1.536526737832884677e+07 1.536902763272891007e+07 1.536104231434020214e+07 1.536526854562966339e+07 1.534762572919083945e+07 1.535823712959047407e+07 1.535998253841513209e+07 -1.535274112057092972e+07 -1.535702374738623016e+07 -1.532428666873501614e+07
1.059949863509523869e+08 1.060000219579173326e+08 -1.059953755256931186e+08 1.060065774246365279e+08 1.059700989107186645e+08 -1.059374880770186931e+08 -1.059760282597575486e+08 1.060028826545099467e+08 1.057655910279414952e+08 1.059951792411683798e+08 -1.059939108569375873e+08 1.059936249765865952e+08 1.060020206554221064e+08 1.059938945719935894e+08 1.058428606846609116e+08 1.059855663639865965e+08 1.059950395061825812e+08 -1.059516329214666784e+08 -1.059770577696208060e+08 -1.058227058857202530e+08
2.735172440060090646e+07 2.735166063167338446e+07 -2.734865510379772261e+07 2.735188862953681871e+07 2.734498395307315513e+07 -2.732693601072835177e+07 -2.734654351668760926e+07 2.735077062101240456e+07 2.729158523713650182e+07 2.735183740469338372e+07 -2.734826295552282035e+07 2.734569996370664984e+07 2.735376786231266707e+07 2.734829154621475562e+07 2.730128700698763505e+07 2.734927466389080137e+07 2.735178104491579905e+07 -2.733989978974778950e+07 -2.734685962471042201e+07 -2.731105141102906317e+07
b1
3.531433983181888470e+05
3.531605715938675567e+05
-3.531454746597532649e+05
3.531828298223252641e+05
3.530601161310838070e+05
-3.529548708119016956e+05
-3.530802802533634240e+05
3.531705237474223832e+05
3.523800077974643791e+05
3.531440552212049952e+05
-3.531405931794481585e+05
3.531404818347594119e+05
3.531663696610804764e+05
3.531405353339720750e+05
3.526409648200058728e+05
3.531115365179490764e+05
3.531435974207956460e+05
-3.529991375637242454e+05
-3.530836962628509500e+05
-3.525676913977282238e+05
W2
-3.062371976050442512e+01 3.401548215003588211e+02 1.115119604356700393e+03 -2.044898489130674013e-01 6.074835234054717148e+02
-3.058324966914485188e+01 3.401516883330178871e+02 1.115164007837213148e+03 -2.602159886085293472e-01 6.074623915518619697e+02
3.052125065244028335e+01 -3.401527358816823607e+02 -1.115138387338901566e+03 3.013251376982284402e-01 -6.074490067832225577e+02
-3.052590003140721464e+01 3.401709164629060069e+02 1.115207589865528689e+03 -3.002220566960429604e-01 6.074609713113022735e+02
-3.064287533335613389e+01 3.401154917307837309e+02 1.114966023049849127e+03 -2.139972868208835644e-01 6.074561947212764608e+02
3.029117964330339063e+01 -3.399494686888557453e+02 -1.114826181094014601e+03 4.142600866997483422e-01 -6.073142970365289557e+02
3.063141162904398485e+01 -3.400997967328051459e+02 -1.115014469070056975e+03 2.077613469743386510e-01 -6.074533491996814973e+02
-3.052354690038018603e+01 3.401639016334698340e+02 1.115184748498935278e+03 -3.018172966007801605e-01 6.074576153402751970e+02
-3.046240448271189294e+01 3.397150514603848706e+02 1.113889237825487953e+03 -8.786344708346008336e-02 6.069032726939451550e+02
-3.062478450861635437e+01 3.401533869028988875e+02 1.115120926195919992e+03 -2.012420553411245761e-01 6.074844421194824235e+02
3.052067406145863160e+01 -3.401504097969859686e+02 -1.115128950558588031e+03 2.992249441611568583e-01 -6.074481743112543199e+02
-3.042087308292078873e+01 3.401097786915202050e+02 1.115131100378691144e+03 -3.606546865960817971e-01 6.074183789604986714e+02
-3.063158500917977634e+01 3.402095142698724999e+02 1.115142692845241527e+03 -2.072982438037248298e-01 6.075069516989734666e+02
-3.052143568472053303e+01 3.401501009047618709e+02 1.115129787413449776e+03 -2.994573937928661778e-01 6.074464759894495955e+02
-3.025579363507434394e+01 3.396182575865287845e+02 1.114317449610743779e+03 -3.464338731925357129e-01 6.071529058546764190e+02
-3.063963474777746043e+01 3.401654053667145376e+02 1.115049111393219164e+03 -2.103126800479047931e-01 6.074833126362490248e+02
-3.062348993274678932e+01 3.401535207310126339e+02 1.115120239819371591e+03 -2.014150916436258376e-01 6.074837424713773544e+02
3.063572029512068795e+01 -3.400274588594330680e+02 -1.114880247374374903e+03 2.054744399113304920e-01 -6.074132397206095675e+02
3.063167638020667383e+01 -3.401034937470242312e+02 -1.115020213132385834e+03 2.069319064409893272e-01 -6.074545284485612910e+02
3.085446038007805925e+01 -3.397511488243964664e+02 -1.114184034849738964e+03 6.979898764827111024e-02 -6.071577852206996795e+02
b2
2.446020933023441302e+01
2.913776373568408076e+02
1.113188711892698393e+03
5.041106356333558303e+00
5.654256568968557985e+02
